#ifndef _GEL_VALS_HH
#define _GEL_VALS_HH
const double gel_vals_2[2] = {-0.5773502691896257, 0.5773502691896257};
const double gel_weights_2[2] = {1.0, 1.0};
const double gel_vals_5[5] = {-0.906179845938664, -0.5384693101056831, 0.0, 0.5384693101056831, 0.906179845938664};
const double gel_weights_5[5] = {0.23692688505618942, 0.4786286704993662, 0.568888888888889, 0.4786286704993662, 0.23692688505618942};
const double gel_vals_10[10] = {-0.9739065285171717, -0.8650633666889845, -0.6794095682990244, -0.4333953941292472, -0.14887433898163122, 0.14887433898163122, 0.4333953941292472, 0.6794095682990244, 0.8650633666889845, 0.9739065285171717};
const double gel_weights_10[10] = {0.06667134430868807, 0.14945134915058036, 0.219086362515982, 0.2692667193099965, 0.295524224714753, 0.295524224714753, 0.2692667193099965, 0.219086362515982, 0.14945134915058036, 0.06667134430868807};
const double gel_vals_50[50] = {-0.998866404420071, -0.9940319694320907, -0.9853540840480058, -0.972864385106692, -0.9566109552428079, -0.936656618944878, -0.9130785566557919, -0.8859679795236131, -0.8554297694299461, -0.821582070859336, -0.7845558329003992, -0.7444943022260686, -0.7015524687068222, -0.6558964656854394, -0.6077029271849502, -0.55715830451465, -0.5044581449074642, -0.44980633497403877, -0.39341431189756515, -0.33550024541943735, -0.27628819377953195, -0.21600723687604176, -0.1548905899981459, -0.09317470156008613, -0.031098338327188876, 0.031098338327188876, 0.09317470156008613, 0.1548905899981459, 0.21600723687604176, 0.27628819377953195, 0.33550024541943735, 0.39341431189756515, 0.44980633497403877, 0.5044581449074642, 0.55715830451465, 0.6077029271849502, 0.6558964656854394, 0.7015524687068222, 0.7444943022260686, 0.7845558329003992, 0.821582070859336, 0.8554297694299461, 0.8859679795236131, 0.9130785566557919, 0.936656618944878, 0.9566109552428079, 0.972864385106692, 0.9853540840480058, 0.9940319694320907, 0.998866404420071};
const double gel_weights_50[50] = {0.0029086225531578685, 0.006759799195745505, 0.01059054838365167, 0.01438082276148571, 0.01811556071348957, 0.021780243170124582, 0.02536067357001259, 0.028842993580534923, 0.032213728223577896, 0.035459835615146026, 0.038568756612587844, 0.0415284630901474, 0.0443275043388031, 0.04695505130394827, 0.049400938449466136, 0.05165570306958092, 0.05371062188899592, 0.05555774480621228, 0.05718992564772815, 0.058600849813222215, 0.059785058704265225, 0.06073797084176991, 0.06145589959031641, 0.06193606742068298, 0.062176616655347, 0.062176616655347, 0.06193606742068298, 0.06145589959031641, 0.06073797084176991, 0.059785058704265225, 0.058600849813222215, 0.05718992564772815, 0.05555774480621228, 0.05371062188899592, 0.05165570306958092, 0.049400938449466136, 0.04695505130394827, 0.0443275043388031, 0.0415284630901474, 0.038568756612587844, 0.035459835615146026, 0.032213728223577896, 0.028842993580534923, 0.02536067357001259, 0.021780243170124582, 0.01811556071348957, 0.01438082276148571, 0.01059054838365167, 0.006759799195745505, 0.0029086225531578685};
const double gel_vals[100] = {-0.9997137267734413, -0.9984919506395958, -0.9962951347331251, -0.9931249370374434, -0.9889843952429918, -0.983877540706057, -0.9778093584869183, -0.9707857757637064, -0.9628136542558156, -0.9539007829254917, -0.944055870136256, -0.9332885350430795, -0.921609298145334, -0.9090295709825297, -0.895561644970727, -0.8812186793850184, -0.8660146884971647, -0.8499645278795913, -0.8330838798884008, -0.8153892383391762, -0.7968978923903145, -0.7776279096494955, -0.7575981185197072, -0.7368280898020207, -0.7153381175730564, -0.693149199355802, -0.670283015603141, -0.6467619085141293, -0.6226088602037078, -0.5978474702471788, -0.5725019326213812, -0.5465970120650941, -0.520158019881763, -0.49321078920819095, -0.465781649773358, -0.4378974021720315, -0.40958529167830154, -0.38087298162462996, -0.3517885263724217, -0.32236034390052914, -0.292617188038472, -0.2625881203715035, -0.23230248184497396, -0.20178986409573602, -0.17108008053860327, -0.14020313723611397, -0.10918920358006111, -0.07806858281343663, -0.046871682421591634, -0.015628984421543084, 0.015628984421543084, 0.046871682421591634, 0.07806858281343663, 0.10918920358006111, 0.14020313723611397, 0.17108008053860327, 0.20178986409573602, 0.23230248184497396, 0.2625881203715035, 0.292617188038472, 0.32236034390052914, 0.3517885263724217, 0.38087298162462996, 0.40958529167830154, 0.4378974021720315, 0.465781649773358, 0.49321078920819095, 0.520158019881763, 0.5465970120650941, 0.5725019326213812, 0.5978474702471788, 0.6226088602037078, 0.6467619085141293, 0.670283015603141, 0.693149199355802, 0.7153381175730564, 0.7368280898020207, 0.7575981185197072, 0.7776279096494955, 0.7968978923903145, 0.8153892383391762, 0.8330838798884008, 0.8499645278795913, 0.8660146884971647, 0.8812186793850184, 0.895561644970727, 0.9090295709825297, 0.921609298145334, 0.9332885350430795, 0.944055870136256, 0.9539007829254917, 0.9628136542558156, 0.9707857757637064, 0.9778093584869183, 0.983877540706057, 0.9889843952429918, 0.9931249370374434, 0.9962951347331251, 0.9984919506395958, 0.9997137267734413};
const double gel_weights[100] = {0.0007346344905008809, 0.001709392653517807, 0.002683925371554019, 0.003655961201327216, 0.004624450063421818, 0.005588428003865117, 0.00654694845084515, 0.007499073255464816, 0.008443871469668721, 0.009380419653694542, 0.01030780257486916, 0.01122511402318622, 0.012131457662979251, 0.013025947892971715, 0.01390771070371885, 0.014775884527441474, 0.015629621077546098, 0.01646808617614516, 0.017290460568323632, 0.018095940722128407, 0.018883739613374886, 0.01965308749443545, 0.020403232646209593, 0.021133442112527594, 0.02184300241624754, 0.02253122025633626, 0.02319742318525442, 0.023840960265968263, 0.024461202707957153, 0.025057544481579718, 0.025629402910208283, 0.02617621923954582, 0.02669745918357113, 0.02719261344657694, 0.027661198220792507, 0.028102755659101357, 0.028516854322395237, 0.028903089601125278, 0.029261084110638446, 0.029590488059912694, 0.02989097959333295, 0.03016226510516929, 0.030404079526454932, 0.030616186583980524, 0.03079837903115269, 0.030950478850491105, 0.03107233742756666, 0.031163835696210035, 0.03122488425484948, 0.03125542345386349, 0.03125542345386349, 0.03122488425484948, 0.031163835696210035, 0.03107233742756666, 0.030950478850491105, 0.03079837903115269, 0.030616186583980524, 0.030404079526454932, 0.03016226510516929, 0.02989097959333295, 0.029590488059912694, 0.029261084110638446, 0.028903089601125278, 0.028516854322395237, 0.028102755659101357, 0.027661198220792507, 0.02719261344657694, 0.02669745918357113, 0.02617621923954582, 0.025629402910208283, 0.025057544481579718, 0.024461202707957153, 0.023840960265968263, 0.02319742318525442, 0.02253122025633626, 0.02184300241624754, 0.021133442112527594, 0.020403232646209593, 0.01965308749443545, 0.018883739613374886, 0.018095940722128407, 0.017290460568323632, 0.01646808617614516, 0.015629621077546098, 0.014775884527441474, 0.01390771070371885, 0.013025947892971715, 0.012131457662979251, 0.01122511402318622, 0.01030780257486916, 0.009380419653694542, 0.008443871469668721, 0.007499073255464816, 0.00654694845084515, 0.005588428003865117, 0.004624450063421818, 0.003655961201327216, 0.002683925371554019, 0.001709392653517807, 0.0007346344905008809};
#endif